solver_type L2R_LR
nr_class 2
label 1 -1
nr_feature 500
bias -1
w
0.06844589412958528 
0.06177212065857163 
0.1463364051266629 
-0.09411029557418373 
-0.3510750716439088 
-0.04654420730532727 
0.09455018211742552 
-0.6077951165832434 
0.3853410348076997 
-0.0246407939570219 
0.1204785689460394 
-0.2090346968953143 
-0.01363963027585406 
0.1534081007831093 
0.2773567712373337 
-0.7196568846464079 
0.3357079512907442 
0.09772528091389227 
0.5654121246846705 
-0.2146112819590072 
-0.3893870145653812 
-0.1214226810903571 
-0.2943913034761909 
0.1787922497775519 
-0.2341087252415344 
0.05201520373226562 
0.02358413339576802 
0.1484964008980765 
0.3333997551046512 
0.01583614010169011 
0.118510652684611 
-0.1963049839939332 
-0.05832301960032942 
0.2055195163189899 
0.06033623173891836 
0.5347371895658653 
0.1816884916460571 
-0.1488378292251191 
-0.1257245232372895 
-0.02309359778362655 
0.4472798398091315 
-0.4606131702628749 
0.2200214171011087 
0.1697413890606725 
0.3007015450098941 
0.05419872039784571 
0.002724291553108437 
0.09922371426179046 
0.09239421920394658 
-0.1257519992037839 
0.4066575901373231 
-0.395174346336765 
0.2170899902468397 
0.2659648092819774 
0.2112953415104714 
-0.1267903665120398 
0.03461030070932697 
-0.004199530063636486 
0.1300973986643373 
-0.155846740291883 
0.4415892037198814 
-0.02387208082719075 
-0.08578223074927807 
-0.1287669225195668 
0.3606114630791445 
0.1696491354566972 
0.09187032573781689 
-0.09246416252645814 
-0.2984524560447699 
-0.4210977040973943 
0.06168193170240606 
-0.03843742343594699 
0.3528140104065974 
0.1865423282116538 
0.1923919628222477 
0.3539746197105618 
0.1582799598574244 
0.4427927019900005 
-0.1595032674303806 
0.2310022742207356 
-0.1803498917409602 
0.05505297140586624 
-0.08629144805429453 
0.226694774823493 
0.3991230595237336 
0.4978710828467751 
0.0202274699614032 
-0.1686028525599423 
-0.01914672578726174 
0.2290495625191903 
-0.1961934933267906 
0.1492805826589407 
0.104824399818425 
-0.04616365421226499 
0.3687284280421455 
-0.09073202657170865 
0.1855976339411086 
0.04757437531824398 
-0.0863816823836254 
-0.4047578296864959 
0.1598090346651331 
0.06478018089550025 
-0.1258835508041696 
0.06139340297529333 
0.1476927023011445 
-0.009012949682335906 
0.05247420243104993 
-0.04174018897187673 
0.163600663631386 
-0.3009685781993941 
-0.006740442677721208 
-0.1083712310216175 
-0.07337746778800568 
0.08679519932274411 
-0.2228282019051883 
-0.1560788311812154 
-0.1867371773256239 
0.1117721617087113 
0.1943062851025673 
-0.1546189095400074 
-0.0159598132741965 
-0.05003701154819497 
-0.3300257986764055 
0.2676917205630224 
0.3650174994680451 
0.2878880587908169 
-0.2815089850654694 
-0.264269474958174 
-0.2160207910333889 
0.2629647332247306 
0.1062901082932929 
-0.09500511241677706 
0.2753107378919336 
0.02344264260349398 
-0.04913576064034392 
-0.1563394335455979 
0.01285868640888978 
0.2121161945392739 
-0.1381075988551972 
0.0420462676856409 
-0.04743011814348 
0.2392878142951881 
-0.2205938815020882 
0.04794661369607721 
-0.04341576412374526 
-0.09282099419903281 
0.1527945559214162 
0.002880588162904759 
0.1694239685791661 
0.5058851345433924 
-0.06977809123542419 
0.09275810959390676 
-0.01923375212607833 
-0.04654200511836667 
0.3836280521546449 
-0.2115452303748508 
0.6862118284262098 
0.1980909480247596 
0.007220267008432348 
0.1077396639991766 
0.1480900174709687 
-0.2040176973192786 
0.7643345752483014 
-0.166801315068946 
0.06447493990566867 
0.006160529233326895 
-0.1727938975412735 
0.05469786580019305 
-0.3166162735730397 
0.3601641735697845 
0.04095432973117044 
0.1792853738477024 
-0.2157257203059508 
-0.2717677591459117 
-0.006761734287427408 
-0.06784720301468042 
0.2237026530222151 
0.04519366345435296 
-0.1485044250646999 
0.01336142333127472 
0.2150707323803237 
0.02292360706608321 
-0.6993742848111797 
-0.05055141872969628 
-0.2112894468738557 
-0.1429856583123982 
0.1743119528984522 
0.07899850942649164 
0.1616095794911561 
0.1555083089017636 
0.1364724724860594 
0.1008512898325012 
-0.4991937018524232 
0.09517199796097017 
0.2941559719475418 
0.1612261542922612 
0.5408835356476353 
0.5564144097796336 
0.0418956256320537 
-0.2476670096275571 
-0.2354877036679361 
-0.4467258749025854 
-0.1185183609213533 
0.123965709731446 
-0.001174686189966896 
0.007109429421699592 
0.417439047663383 
0.2321442741844556 
-0.3540494522860132 
-0.6437055469243799 
0.1103807855367748 
0.08997675466985262 
0.04118150604098647 
-0.152617671572661 
0.08493225594677874 
-0.03342376541102607 
-0.1720633929865714 
-0.01304740835975366 
0.3608740638998211 
-0.3269466216081258 
0.08018187367262905 
0.1150132379246379 
-0.08912617635259436 
-0.01939769712909792 
0.003808881573463771 
-0.4243041664160829 
-0.01167811657486609 
0.1627785574776891 
-0.103033217829614 
-0.2870513570408849 
-0.1692232153235066 
-0.08206066369533491 
0.3767808005847305 
-0.2572361982399721 
-0.445899659324119 
-0.2889664968050584 
-0.03855254114445017 
-0.09762809565650936 
0.2691548426902045 
-0.2817377988360461 
-0.2380762537081607 
0.1119653550669671 
-0.08551684234141266 
-0.09376718423067713 
-0.07810580014887389 
-0.09995828516532482 
-0.3718558972747723 
0.2942010122150185 
0.07713748987773542 
0.1198085375946946 
0.3329352374347664 
-0.03096699951531913 
-0.5363139583722748 
-0.1998816849302689 
-0.02057775422244546 
-0.417020911302215 
-0.04404693372089304 
0.4317256986073794 
-0.2225758708233253 
0.3915863702548632 
0.004622041011841668 
-0.05705244243565023 
0.1390580948529642 
0.05900331999568849 
0.04775056018156339 
0.3114261802847279 
-0.1399106299574451 
-0.1293680421237833 
-0.1294483368840757 
0.08183325548963677 
0.1179763524912154 
-0.1478533101030756 
0.2702754016317646 
0.1361830209941225 
-0.1097493991482443 
0.2641854893022807 
-0.1018650498802558 
0.1665249366280892 
-0.09017120996926946 
0.1042216727165718 
-0.2816832720088301 
0.1838877464411668 
0.5723832757715681 
-0.05454684048307926 
0.04702354055673969 
0.4126919227522258 
-0.4402720788688098 
-0.2216551632764418 
-0.2643961242226875 
0.4481808923669937 
0.05502937153281793 
0.1164834874705332 
-0.2949432743191193 
-0.1593716830764178 
0.13728003483538 
-0.2971302167278812 
-0.1490340219249052 
0.2149518808998979 
0.08396648806350007 
0.0007102080163388577 
0.01466647200043641 
0.1307543280013891 
-0.2645966292915566 
0.2457889506123038 
-0.1046408392750242 
-0.1056107006505128 
0.03755619892563203 
0.1082627500082859 
0.1329264196013822 
-0.2046691098262854 
0.3447149180285144 
-0.345337201038955 
-0.166091423120826 
-0.2249497325064833 
0.0797464007213595 
-0.2141189148136835 
-0.4630143004717849 
-0.02084936912035871 
0.114705731274684 
0.1295750744318624 
0.2396758616122302 
0.2855802220171912 
0.054541910972714 
-0.1075563392315363 
-0.2745263430424792 
0.2311820677956958 
0.08369968559430888 
-0.0940207673150355 
0.3291044792418815 
-0.1920360606693201 
0.1031627043026239 
-0.3412141023406567 
-0.03428347125421782 
0.0005812459812724671 
0.07050299751687382 
0.04042365299442159 
-0.576340561350669 
0.4220462003962153 
-0.0850430208374211 
-0.08546536672827895 
0.1227584894039617 
0.04805957304998563 
0.07497558448460434 
0.05488638786845753 
0.05081613179858956 
0.01048694063730321 
0.1504823819059026 
0.05048445227488388 
-0.108361679041333 
0.1985814472795548 
-0.3520096544154256 
-0.1205748548355348 
-0.1085769894924434 
-0.2532787375845649 
0.1275426628749599 
0.1831710830900866 
0.02389738560773172 
0.3851308656559597 
-0.3031026098325242 
0.4958682561063203 
0.09509634798743061 
0.3142604881220846 
-0.005525837608362218 
-0.09920138467162201 
-0.08429064141209339 
-0.02557031080671405 
0.1031921849000201 
0.2228544617297864 
-0.09829818891082692 
-0.2437602920383183 
-0.09375242003440271 
-0.09876597016495331 
-0.1955629227858612 
0.406552447289932 
0.1193774712532414 
0.0314620761264518 
0.3206039476417613 
-0.1751508243536804 
-0.01225454469384746 
-0.05358117889603535 
0.03562135733010471 
-0.1571304060862017 
0.2633569669907435 
-0.2638695235879242 
-0.09730729037985311 
-0.1700530105428665 
0.1786256812880516 
-0.3457605959220645 
-0.2139450144144802 
0.07194927803730765 
0.2782176427675216 
-0.09841967355566182 
-0.07921960419371464 
-0.2553755832941159 
0.03335696085323812 
-0.05243260426004226 
-0.3850519698079767 
-0.3194891211895776 
-0.0770956300377782 
0.3993443982965255 
-0.2470876323737384 
-0.1715982361114811 
0.1850674980594442 
0.7693821154510706 
0.001412583930413363 
-0.09345458573823975 
-0.1437467621227847 
-0.2617206899448703 
0.5249219028273097 
0.2895241879362248 
0.1639651392590743 
-0.09981382868200857 
0.002456249853404396 
-0.2782437992536571 
0.08900458371803954 
0.3695790381627184 
-0.04163371571437363 
0.06287817957271044 
0.3003578821396236 
0.5493672197769817 
0.03594777089501199 
0.03316803459059949 
-0.03600323450327453 
0.2835739021101714 
-0.002419970334400899 
0.1287327167279102 
0.01617927443235398 
0.3468244793677627 
-0.1368260813546525 
-0.1059512314564352 
0.2949663351183964 
-0.09310026148807193 
0.2888076458278763 
-0.02827160254169866 
0.1658834130855935 
-0.043329038868707 
0.1887878174139695 
0.2057665757340751 
0.03192436709393762 
0.1400906544752856 
-0.1400902588893385 
0.1237410225382861 
0.2284772799644265 
-0.1851869566090236 
-0.5455001901054736 
-0.3097074524072109 
0.1953441271665743 
0.244140901709863 
-0.03415443896987903 
0.2379809356360156 
0.1541467045311574 
0.3536103622591044 
0.2147265530937754 
-0.3963394985700019 
-0.1085858874450634 
-0.5588661595057103 
-0.2173075803457833 
-0.04551363503145937 
-0.2452410657985397 
-0.224009221234684 
0.2275344528772387 
0.5077360758229175 
-0.01298922488506165 
0.3952987348730911 
-0.0991688722330737 
0.6370986920081754 
-0.2596893250547537 
-0.2221275912934786 
-0.2527831143872384 
0.3019598679443573 
-0.4902901872082397 
0.0002034310125325275 
-0.549466028873183 
0.0383225582811421 
-0.0472562654443696 
-0.1349223073969821 
0.1294811216359064 
0.1428556163223327 
-0.2338496159969907 
-0.06835433115981661 
0.1654545623496188 
0.05008072915111388 
0.1903294022099753 
-0.09144410011727286 
0.3165916945424424 
-0.1065910672105296 
0.3992441014152427 
-0.249464509969463 
-0.2110531542552023 
-0.4316726091542236 
-0.05554664676580205 
-0.008545403557700847 
-0.105569234557675 
-0.2351569267137415 
0.3866351771322369 
0.0562459358723614 
-0.112723666118676 
-0.3977844037980742 
-0.4330825842311635 
-0.2712043772758517 
